{
  "mlp_classifier": {
    "graphs": {
      "mlp_classifier": {
        "nodes": {
          "mlp_input_layer": {
            "parameters": {
              "weight": [
                [
                  6.7730e-02,
                  3.7100e-02,
                  2.4110e-02,
                  6.8840e-02,
                  2.5170e-02,
                  -6.4300e-02,
                  -5.1090e-02,
                  5.7900e-02,
                  -6.8300e-03,
                  -3.1950e-02,
                  -3.9920e-02,
                  -2.1000e-04,
                  -4.1780e-02,
                  -6.7470e-02,
                  -3.7750e-02,
                  -2.1440e-02,
                  -1.0420e-02,
                  4.8460e-02,
                  -3.9420e-02,
                  4.7060e-02,
                  -4.7400e-03,
                  4.4970e-02,
                  2.5010e-02,
                  3.7510e-02,
                  2.8720e-02,
                  -6.1900e-02,
                  5.8890e-02,
                  -6.0880e-02,
                  -1.5490e-02,
                  3.1200e-02,
                  2.6550e-02,
                  2.6520e-02,
                  8.5420e-02,
                  3.2790e-02,
                  1.1216e-01,
                  1.4242e-01,
                  1.0409e-01,
                  -9.9260e-02,
                  -1.4465e-01,
                  -4.8910e-02,
                  5.5880e-02,
                  -5.4650e-02,
                  -6.8030e-02,
                  -3.1660e-02,
                  7.9370e-02,
                  1.8430e-02,
                  -9.3400e-03,
                  8.7530e-02,
                  5.2510e-02,
                  1.5428e-01,
                  1.1802e-01,
                  -7.9480e-02,
                  -1.6580e-01,
                  -6.9090e-02,
                  -1.9110e-02,
                  -4.2900e-02,
                  1.6370e-02,
                  -4.7830e-02,
                  8.2520e-02,
                  -5.6540e-02,
                  -2.0723e-01,
                  -2.9772e-01,
                  -2.4432e-01,
                  1.4709e-01,
                  1.5919e-01,
                  -6.7610e-02,
                  -2.1540e-01,
                  -1.6901e-01,
                  -4.4910e-02,
                  5.3100e-03,
                  -2.6500e-03,
                  5.0200e-02,
                  -6.2030e-02,
                  -1.7003e-01,
                  -1.9589e-01,
                  -9.6810e-02,
                  1.6086e-01,
                  3.0712e-01,
                  7.3690e-02,
                  -1.1725e-01,
                  -6.4650e-02,
                  -1.1085e-01,
                  -1.8980e-02,
                  1.8820e-02,
                  4.0770e-02,
                  -6.6100e-02,
                  1.7370e-02,
                  4.8900e-03,
                  1.3706e-01,
                  1.3948e-01,
                  1.6988e-01,
                  3.7440e-02,
                  -6.4420e-02,
                  -1.0358e-01,
                  -6.2270e-02,
                  -4.3960e-02,
                  4.4250e-02,
                  -5.8160e-02,
                  -7.0570e-02,
                  6.7170e-02,
                  -7.1700e-03,
                  5.3930e-02,
                  -4.1800e-02,
                  -6.1860e-02,
                  -5.0190e-02,
                  -3.9210e-02,
                  -5.5480e-02,
                  -1.4125e-01,
                  6.7500e-02,
                  1.0559e-01,
                  -9.6100e-03,
                  1.1530e-02,
                  4.9500e-03,
                  3.3410e-02,
                  -1.8810e-02,
                  -6.1130e-02,
                  -2.2039e-01,
                  -1.5883e-01,
                  -7.3900e-02,
                  -7.3490e-02,
                  -1.2460e-01,
                  -8.3020e-02,
                  -8.4390e-02,
                  1.3446e-01,
                  3.8410e-02,
                  2.0030e-02,
                  1.7900e-02,
                  6.7760e-02,
                  -9.2390e-02,
                  -1.5345e-01,
                  -5.0740e-02,
                  -2.7853e-01,
                  -8.2670e-02,
                  3.7240e-02,
                  -9.3080e-02,
                  -6.3500e-03,
                  3.1670e-02,
                  -2.7290e-02,
                  -6.0030e-02,
                  4.7150e-02,
                  2.7840e-02,
                  7.7040e-02,
                  -8.9240e-02,
                  -4.7930e-02,
                  7.7200e-02,
                  -7.6650e-02,
                  -6.7410e-02,
                  1.0300e-02,
                  -7.6900e-03,
                  -5.2800e-03,
                  -1.0419e-01,
                  -7.7950e-02,
                  -2.4650e-02,
                  5.7100e-02,
                  -1.7200e-02,
                  -4.4860e-02,
                  -5.8370e-02,
                  -2.0500e-02,
                  7.1130e-02,
                  1.3810e-01,
                  -9.5210e-02,
                  -8.5330e-02,
                  -2.1190e-02,
                  7.6730e-02,
                  -3.1580e-02,
                  7.3100e-03,
                  -3.0400e-02,
                  -2.7880e-02,
                  -5.8980e-02,
                  3.2940e-02,
                  -6.7100e-03,
                  1.0418e-01,
                  6.8120e-02,
                  6.2530e-02,
                  3.6550e-02,
                  -4.4420e-02,
                  -1.0976e-01,
                  1.8290e-02,
                  -7.9400e-02,
                  4.1340e-02,
                  6.8720e-02,
                  5.3070e-02,
                  6.1720e-02,
                  -4.3730e-02,
                  3.4270e-02,
                  3.0550e-02,
                  4.5150e-02,
                  -1.8030e-02,
                  5.4560e-02,
                  -6.1970e-02,
                  5.2350e-02,
                  2.5350e-02,
                  -4.9460e-02,
                  2.8520e-02,
                  -1.4800e-03,
                  -5.3830e-02
                ],
                [
                  -0.0304,
                  -0.03927,
                  -0.01023,
                  0.02786,
                  0.0539,
                  0.05439,
                  -0.03917,
                  -0.0113,
                  -0.05108,
                  -0.01933,
                  -0.01032,
                  -0.02,
                  0.02766,
                  -0.03535,
                  0.04665,
                  0.01604,
                  -0.04378,
                  0.02251,
                  -0.00924,
                  0.03106,
                  0.02505,
                  0.02043,
                  0.0425,
                  0.07343,
                  0.04732,
                  0.04006,
                  0.02554,
                  -0.02396,
                  0.03711,
                  0.04369,
                  0.0877,
                  0.02714,
                  -0.01373,
                  0.08689,
                  -0.0537,
                  -0.03755,
                  0.04815,
                  0.06062,
                  0.00703,
                  0.07815,
                  0.06891,
                  0.0645,
                  -0.05789,
                  0.06024,
                  0.10211,
                  0.03976,
                  -0.01259,
                  0.02308,
                  0.06327,
                  0.07942,
                  0.19439,
                  0.16035,
                  0.10008,
                  -0.06952,
                  0.05142,
                  0.07206,
                  0.03136,
                  -0.03281,
                  -0.05462,
                  0.04253,
                  0.04314,
                  0.051,
                  -0.0304,
                  -0.02927,
                  -0.12203,
                  -0.19996,
                  -0.10484,
                  -0.06507,
                  -0.01792,
                  0.02747,
                  0.01108,
                  0.0715,
                  -0.05905,
                  0.01371,
                  -0.04786,
                  -0.03356,
                  0.01174,
                  -0.05535,
                  -0.06505,
                  -0.07882,
                  -0.19553,
                  -0.24592,
                  -0.06779,
                  -0.06308,
                  -0.05434,
                  -0.0268,
                  0.04064,
                  -0.05047,
                  -0.03698,
                  0.07034,
                  0.10522,
                  0.10124,
                  0.0322,
                  0.07427,
                  0.04418,
                  -0.05347,
                  -0.04806,
                  -0.01388,
                  0.01405,
                  0.03409,
                  -0.14094,
                  -0.18776,
                  -0.07221,
                  0.06064,
                  0.18687,
                  0.06383,
                  -0.01482,
                  -0.0351,
                  0.07164,
                  0.13729,
                  -0.01097,
                  -0.07265,
                  -0.06811,
                  0.03933,
                  -0.27296,
                  -0.34273,
                  -0.42833,
                  -0.32303,
                  -0.21885,
                  -0.02214,
                  0.0157,
                  0.00379,
                  0.07281,
                  0.19721,
                  -0.01684,
                  -0.06387,
                  0.0291,
                  0.11331,
                  -0.10404,
                  -0.1228,
                  -0.20008,
                  -0.43078,
                  -0.40837,
                  -0.19969,
                  -0.10955,
                  -0.00209,
                  0.00801,
                  0.01148,
                  0.0877,
                  0.0138,
                  -0.01369,
                  0.02959,
                  0.0724,
                  0.064,
                  0.04894,
                  0.14937,
                  0.21109,
                  0.07564,
                  -0.02838,
                  -0.01305,
                  0.0794,
                  0.04445,
                  -0.03793,
                  -0.05205,
                  -0.06271,
                  -0.01158,
                  0.10218,
                  0.03355,
                  0.09659,
                  0.1907,
                  0.10309,
                  0.04966,
                  0.02479,
                  0.02534,
                  -0.00359,
                  0.02616,
                  -0.05041,
                  -0.00398,
                  -0.0314,
                  0.05168,
                  0.05283,
                  0.05307,
                  0.14159,
                  0.1464,
                  0.05236,
                  0.03264,
                  -0.01854,
                  -0.04891,
                  -0.0407,
                  -0.04921,
                  0.01855,
                  -0.06844,
                  0.05581,
                  0.06556,
                  0.00062,
                  -0.03584,
                  -0.03463,
                  -0.03187,
                  -0.04737,
                  0.022,
                  -0.04981,
                  0.01553,
                  0.02551,
                  -0.011,
                  0.04794,
                  -0.01653
                ],
                [
                  2.4700e-03,
                  9.0800e-03,
                  -3.2760e-02,
                  -5.9830e-02,
                  7.2470e-02,
                  -6.8320e-02,
                  -5.9220e-02,
                  -1.3990e-02,
                  -1.5000e-03,
                  -3.6530e-02,
                  6.1910e-02,
                  2.3130e-02,
                  -3.3890e-02,
                  5.7820e-02,
                  4.9160e-02,
                  3.5610e-02,
                  2.7680e-02,
                  -4.1450e-02,
                  9.1600e-03,
                  -5.0150e-02,
                  -1.9680e-02,
                  3.4360e-02,
                  9.2740e-02,
                  4.9230e-02,
                  -5.2640e-02,
                  6.1580e-02,
                  -5.6000e-02,
                  6.3000e-03,
                  -4.3100e-02,
                  -1.0000e-05,
                  -6.6140e-02,
                  -5.1250e-02,
                  -6.8980e-02,
                  -2.5540e-02,
                  -4.4040e-02,
                  9.6100e-03,
                  7.8290e-02,
                  6.6540e-02,
                  6.1170e-02,
                  -1.3200e-03,
                  -7.2350e-02,
                  -4.7820e-02,
                  2.7260e-02,
                  -2.7300e-03,
                  -6.0780e-02,
                  -4.5300e-03,
                  7.6140e-02,
                  2.7690e-02,
                  2.0949e-01,
                  1.2986e-01,
                  1.2019e-01,
                  6.9870e-02,
                  8.9750e-02,
                  1.1491e-01,
                  8.7420e-02,
                  -6.7910e-02,
                  -1.6820e-02,
                  2.8240e-02,
                  -6.4050e-02,
                  3.0360e-02,
                  -1.1130e-02,
                  1.1717e-01,
                  1.8053e-01,
                  8.6260e-02,
                  9.4220e-02,
                  5.1460e-02,
                  -2.6060e-02,
                  -1.3320e-02,
                  4.4090e-02,
                  -3.4470e-02,
                  -5.5750e-02,
                  -5.2820e-02,
                  -6.2010e-02,
                  6.4870e-02,
                  3.1000e-03,
                  6.7800e-03,
                  -9.4280e-02,
                  -4.3245e-01,
                  -1.3067e-01,
                  -8.2330e-02,
                  -2.3749e-01,
                  -1.5372e-01,
                  6.0240e-02,
                  -1.1640e-02,
                  3.2700e-02,
                  -3.6130e-02,
                  -2.4200e-02,
                  -3.8900e-03,
                  -9.0630e-02,
                  -9.6890e-02,
                  -1.6535e-01,
                  -3.0298e-01,
                  -1.4074e-01,
                  -3.6090e-02,
                  -2.9555e-01,
                  -3.7030e-02,
                  1.3860e-02,
                  -2.7300e-02,
                  2.6300e-02,
                  -3.7490e-02,
                  -8.6250e-02,
                  -4.6820e-02,
                  -9.5250e-02,
                  -1.3619e-01,
                  -1.6500e-01,
                  -2.0033e-01,
                  -8.6640e-02,
                  -1.8372e-01,
                  -1.0675e-01,
                  -2.7840e-02,
                  3.4530e-02,
                  -2.1270e-02,
                  5.3730e-02,
                  -3.5170e-02,
                  -1.3930e-02,
                  -1.4945e-01,
                  -3.3430e-02,
                  4.7210e-02,
                  -6.7150e-02,
                  -2.4918e-01,
                  -5.8610e-02,
                  -1.7088e-01,
                  -9.2000e-02,
                  2.1710e-02,
                  7.1950e-02,
                  -5.5680e-02,
                  5.1410e-02,
                  2.7400e-03,
                  -7.4540e-02,
                  4.9340e-02,
                  -3.6770e-02,
                  8.1710e-02,
                  -7.6100e-02,
                  -2.3470e-01,
                  -1.1901e-01,
                  -3.4860e-02,
                  -1.7610e-02,
                  -2.4020e-02,
                  2.3300e-02,
                  2.0900e-03,
                  5.5780e-02,
                  7.5370e-02,
                  4.6360e-02,
                  -3.8900e-03,
                  9.4000e-02,
                  1.9424e-01,
                  2.7893e-01,
                  1.5833e-01,
                  8.3430e-02,
                  -1.8470e-02,
                  1.3528e-01,
                  5.3790e-02,
                  -2.4600e-03,
                  -2.5950e-02,
                  -1.8550e-02,
                  -3.1810e-02,
                  -2.8000e-04,
                  2.0430e-02,
                  1.4176e-01,
                  7.4400e-02,
                  6.3480e-02,
                  7.0780e-02,
                  6.1580e-02,
                  1.7480e-02,
                  7.1520e-02,
                  3.6520e-02,
                  4.6290e-02,
                  -1.6240e-02,
                  6.4080e-02,
                  2.5980e-02,
                  -2.3670e-02,
                  -8.2200e-03,
                  6.2900e-03,
                  -2.6800e-03,
                  3.6200e-02,
                  1.6950e-02,
                  5.0690e-02,
                  7.4240e-02,
                  3.9790e-02,
                  -4.8960e-02,
                  -5.1600e-03,
                  6.3440e-02,
                  -6.7830e-02,
                  -5.7300e-02,
                  -2.7330e-02,
                  -2.8090e-02,
                  -5.3480e-02,
                  6.5600e-03,
                  5.7220e-02,
                  3.9340e-02,
                  6.6170e-02,
                  -8.0900e-03,
                  -4.5380e-02,
                  5.9740e-02,
                  3.1480e-02,
                  1.6680e-02
                ],
                [
                  3.1610e-02,
                  -1.8000e-02,
                  -4.4330e-02,
                  6.4520e-02,
                  -2.5250e-02,
                  -4.4200e-02,
                  -5.5510e-02,
                  1.0150e-02,
                  -4.7990e-02,
                  -4.2940e-02,
                  3.1410e-02,
                  -4.4830e-02,
                  4.7000e-03,
                  -3.4090e-02,
                  -8.5800e-03,
                  -5.5830e-02,
                  4.8370e-02,
                  3.8160e-02,
                  4.0820e-02,
                  -3.7700e-02,
                  2.4000e-03,
                  -7.1400e-02,
                  -9.6070e-02,
                  9.9600e-03,
                  7.2600e-03,
                  9.8780e-02,
                  -5.6160e-02,
                  -6.8120e-02,
                  -4.9690e-02,
                  -4.6050e-02,
                  -7.7020e-02,
                  -4.4510e-02,
                  1.0030e-02,
                  2.7510e-02,
                  7.9340e-02,
                  1.1930e-02,
                  8.5800e-03,
                  -7.6820e-02,
                  -3.9960e-02,
                  -4.0200e-02,
                  1.1150e-02,
                  5.1100e-02,
                  2.3130e-02,
                  -7.2920e-02,
                  -6.2470e-02,
                  -6.7070e-02,
                  1.1860e-02,
                  1.3241e-01,
                  -7.0240e-02,
                  -1.4672e-01,
                  -8.1290e-02,
                  -1.1800e-01,
                  -2.2022e-01,
                  -5.0610e-02,
                  -5.4560e-02,
                  4.9580e-02,
                  8.7300e-03,
                  -6.3250e-02,
                  -1.0341e-01,
                  -7.4640e-02,
                  7.3020e-02,
                  1.2518e-01,
                  -5.2110e-02,
                  -1.2045e-01,
                  -2.9680e-02,
                  -1.0001e-01,
                  -7.9670e-02,
                  -3.7060e-02,
                  6.9000e-02,
                  6.2950e-02,
                  3.3700e-03,
                  2.3980e-02,
                  1.0050e-02,
                  5.2000e-04,
                  9.2120e-02,
                  6.6730e-02,
                  -1.8220e-01,
                  -2.0120e-01,
                  5.0620e-02,
                  -3.7690e-02,
                  7.1700e-03,
                  -4.5070e-02,
                  -4.0630e-02,
                  -4.5850e-02,
                  2.6620e-02,
                  -3.7200e-02,
                  -1.4409e-01,
                  2.9000e-04,
                  4.0100e-02,
                  1.6081e-01,
                  -1.8448e-01,
                  -1.7229e-01,
                  -8.4280e-02,
                  -9.2160e-02,
                  -3.9610e-02,
                  4.5200e-02,
                  1.1820e-02,
                  -4.9530e-02,
                  3.0980e-02,
                  1.1590e-02,
                  1.4610e-02,
                  -2.6240e-02,
                  1.1304e-01,
                  2.9616e-01,
                  3.8430e-02,
                  -9.8130e-02,
                  -8.8420e-02,
                  -7.1130e-02,
                  1.4440e-02,
                  1.4574e-01,
                  8.2100e-02,
                  -5.6460e-02,
                  -3.5670e-02,
                  -1.0630e-02,
                  -7.6880e-02,
                  4.1060e-02,
                  1.8666e-01,
                  1.6272e-01,
                  -3.1520e-02,
                  3.8580e-02,
                  3.5990e-02,
                  1.0590e-02,
                  7.6060e-02,
                  -2.2380e-02,
                  -7.5000e-04,
                  1.2400e-03,
                  -4.8880e-02,
                  2.4840e-02,
                  -1.0910e-02,
                  1.0062e-01,
                  1.1945e-01,
                  1.1595e-01,
                  3.1520e-02,
                  7.8130e-02,
                  -1.2960e-02,
                  -6.7650e-02,
                  5.8990e-02,
                  7.1270e-02,
                  3.7080e-02,
                  1.1740e-02,
                  -6.8650e-02,
                  2.5480e-02,
                  -3.8110e-02,
                  6.3800e-03,
                  2.2242e-01,
                  2.0481e-01,
                  5.3650e-02,
                  -2.7060e-02,
                  4.8000e-04,
                  -1.2031e-01,
                  -2.3950e-02,
                  6.6360e-02,
                  -1.9620e-02,
                  -4.6700e-02,
                  4.0400e-03,
                  -6.5500e-03,
                  2.7340e-02,
                  -3.5930e-02,
                  9.5560e-02,
                  8.9000e-02,
                  1.0590e-02,
                  -8.4840e-02,
                  -7.8690e-02,
                  -6.2210e-02,
                  -9.2730e-02,
                  8.9200e-03,
                  7.0190e-02,
                  -7.0910e-02,
                  -1.6760e-02,
                  1.0800e-02,
                  -6.4300e-03,
                  -1.0043e-01,
                  -1.5010e-01,
                  -9.7290e-02,
                  -4.7390e-02,
                  -4.4040e-02,
                  -1.3270e-01,
                  -1.6043e-01,
                  -1.4462e-01,
                  -5.4800e-03,
                  -6.2840e-02,
                  -3.6500e-02,
                  6.0220e-02,
                  4.4630e-02,
                  6.0700e-02,
                  2.3410e-02,
                  1.6760e-02,
                  -8.2370e-02,
                  1.3950e-02,
                  3.1600e-03,
                  -8.9130e-02,
                  -1.4220e-02,
                  3.3260e-02,
                  -5.3370e-02,
                  5.5310e-02,
                  -2.8440e-02
                ],
                [
                  0.03416,
                  0.05037,
                  0.02836,
                  0.01756,
                  -0.02288,
                  0.00636,
                  -0.03138,
                  0.07027,
                  0.03305,
                  -0.04351,
                  0.0009,
                  -0.01653,
                  -0.0404,
                  0.00889,
                  -0.01463,
                  0.04001,
                  -0.01445,
                  0.03687,
                  -0.03325,
                  -0.08069,
                  -0.02307,
                  0.03556,
                  -0.03466,
                  0.07392,
                  0.0552,
                  -0.05286,
                  0.06113,
                  -0.05345,
                  -0.03966,
                  -0.00616,
                  -0.03202,
                  0.01983,
                  -0.04415,
                  -0.04312,
                  -0.01307,
                  0.02194,
                  -0.05268,
                  -0.04696,
                  -0.00742,
                  0.05097,
                  0.07597,
                  0.05992,
                  0.02734,
                  -0.06767,
                  -0.05758,
                  -0.03381,
                  -0.06012,
                  -0.05862,
                  -0.10246,
                  0.01814,
                  0.02959,
                  0.08265,
                  0.1133,
                  0.045,
                  0.06344,
                  0.05581,
                  0.01816,
                  -0.04625,
                  -0.0151,
                  -0.07151,
                  -0.10038,
                  -0.02538,
                  0.00374,
                  0.0301,
                  -0.0595,
                  0.01668,
                  -0.03597,
                  -0.01296,
                  0.09196,
                  0.00751,
                  -0.06822,
                  0.05357,
                  -0.0177,
                  -0.12668,
                  -0.02729,
                  -0.00308,
                  -0.06364,
                  0.11004,
                  0.12099,
                  0.07852,
                  0.01616,
                  0.10922,
                  0.12971,
                  0.05772,
                  -0.01969,
                  -0.00565,
                  -0.00257,
                  -0.11227,
                  -0.01205,
                  -0.01183,
                  0.06849,
                  0.08512,
                  0.1075,
                  0.08665,
                  -0.05109,
                  -0.03775,
                  -0.08764,
                  0.06,
                  0.01647,
                  0.05839,
                  0.01928,
                  -0.02734,
                  -0.01451,
                  -0.09138,
                  -0.00616,
                  -0.00766,
                  -0.12102,
                  0.00758,
                  -0.06694,
                  -0.07545,
                  0.0005,
                  0.05417,
                  0.00332,
                  0.04814,
                  0.0688,
                  0.01855,
                  -0.07121,
                  -0.06243,
                  -0.05655,
                  -0.04051,
                  0.08423,
                  -0.01065,
                  -0.08926,
                  -0.15757,
                  -0.06537,
                  -0.03119,
                  -0.04036,
                  0.0232,
                  -0.03389,
                  -0.04039,
                  0.04867,
                  0.04743,
                  0.07421,
                  0.05772,
                  0.14601,
                  0.0104,
                  -0.21189,
                  -0.18034,
                  -0.00447,
                  0.06225,
                  0.03122,
                  -0.11042,
                  -0.0763,
                  0.01868,
                  -0.05771,
                  -0.05996,
                  0.0322,
                  0.07115,
                  0.12007,
                  -0.25307,
                  -0.23827,
                  -0.08731,
                  0.05359,
                  -0.05373,
                  -0.01262,
                  -0.03799,
                  -0.02261,
                  0.07517,
                  -0.00406,
                  0.04309,
                  0.09817,
                  0.13308,
                  -0.20371,
                  -0.25836,
                  -0.14267,
                  -0.05711,
                  0.04054,
                  -0.04282,
                  0.03973,
                  0.0534,
                  0.01145,
                  0.05225,
                  0.0342,
                  -0.03277,
                  0.11031,
                  0.03051,
                  -0.09525,
                  -0.14272,
                  -0.02889,
                  0.00246,
                  0.00256,
                  -0.02764,
                  -0.04648,
                  0.0412,
                  0.00104,
                  0.03904,
                  0.03231,
                  0.07462,
                  0.07085,
                  0.03626,
                  0.05814,
                  0.06503,
                  0.05438,
                  0.03582,
                  0.04938,
                  0.00839
                ],
                [
                  -0.03272,
                  -0.05327,
                  0.03419,
                  0.02924,
                  -0.0425,
                  -0.00873,
                  -0.01186,
                  -0.01366,
                  -0.01323,
                  0.03455,
                  -0.0134,
                  0.05831,
                  -0.07054,
                  0.04016,
                  -0.04494,
                  -0.01845,
                  -0.04332,
                  -0.05088,
                  -0.03307,
                  -0.01063,
                  -0.09954,
                  -0.02185,
                  0.04155,
                  -0.03801,
                  -0.081,
                  0.03744,
                  -0.0034,
                  0.05565,
                  -0.00166,
                  -0.03321,
                  -0.02629,
                  0.00783,
                  0.10953,
                  0.04113,
                  -0.11653,
                  -0.26307,
                  -0.01914,
                  -0.01368,
                  0.00683,
                  0.02451,
                  -0.05044,
                  0.0484,
                  -0.02084,
                  0.00264,
                  0.04248,
                  0.16355,
                  0.03156,
                  -0.03,
                  0.03579,
                  -0.24331,
                  -0.05142,
                  0.04259,
                  0.07541,
                  0.01499,
                  -0.02121,
                  -0.06836,
                  0.04394,
                  0.02623,
                  0.03418,
                  0.03076,
                  0.01735,
                  0.03324,
                  -0.01588,
                  -0.19549,
                  0.03461,
                  0.05475,
                  0.06024,
                  -0.02003,
                  -0.09487,
                  -0.03472,
                  -0.03217,
                  0.0961,
                  0.00551,
                  -0.13064,
                  -0.08484,
                  -0.03367,
                  0.02594,
                  -0.12688,
                  0.08919,
                  0.1431,
                  0.07487,
                  -0.05687,
                  -0.17187,
                  -0.04536,
                  0.01594,
                  0.08611,
                  -0.16503,
                  -0.13435,
                  -0.16401,
                  0.11924,
                  -0.08555,
                  -0.14171,
                  -0.02992,
                  -0.13203,
                  -0.09719,
                  -0.01558,
                  -0.07827,
                  -0.06153,
                  -0.05651,
                  -0.03229,
                  -0.1021,
                  -0.05931,
                  0.04369,
                  0.03477,
                  -0.17105,
                  -0.00339,
                  0.07403,
                  0.08753,
                  0.13419,
                  0.05303,
                  0.01433,
                  0.08175,
                  0.00838,
                  0.04316,
                  -0.00998,
                  0.06344,
                  0.05345,
                  -0.10831,
                  -0.11306,
                  0.23488,
                  0.20368,
                  0.39741,
                  0.33624,
                  0.21926,
                  0.1612,
                  0.08493,
                  0.05993,
                  -0.0122,
                  0.1419,
                  0.05747,
                  -0.01237,
                  -0.32931,
                  -0.13219,
                  0.1225,
                  0.12901,
                  -0.02156,
                  0.02565,
                  0.03214,
                  0.01541,
                  -0.04501,
                  0.011,
                  0.09785,
                  0.01236,
                  -0.03587,
                  -0.0703,
                  -0.16424,
                  -0.0817,
                  -0.03496,
                  -0.10907,
                  -0.13293,
                  -0.03252,
                  -0.05901,
                  0.01222,
                  0.01164,
                  -0.04436,
                  -0.07108,
                  -0.09967,
                  -0.06663,
                  0.008,
                  0.03619,
                  0.01707,
                  0.03307,
                  -0.00428,
                  -0.10834,
                  -0.06723,
                  -0.04452,
                  0.00569,
                  0.04275,
                  0.03351,
                  0.02426,
                  -0.06531,
                  0.04123,
                  0.00638,
                  -0.05012,
                  0.04255,
                  -0.04001,
                  0.06983,
                  -0.06425,
                  -0.0504,
                  -0.13027,
                  0.05129,
                  0.06313,
                  -0.04507,
                  -0.06184,
                  0.05375,
                  -0.07742,
                  0.0267,
                  -0.02222,
                  -0.00874,
                  -0.00679,
                  -0.06113,
                  0.06043,
                  -0.07427,
                  -0.00232,
                  -0.00515,
                  -0.0085
                ],
                [
                  -0.06363,
                  0.0505,
                  -0.01501,
                  0.02629,
                  -0.04456,
                  0.06464,
                  0.00866,
                  -0.05429,
                  0.00675,
                  0.06943,
                  -0.05442,
                  -0.04854,
                  0.01829,
                  -0.02999,
                  -0.00426,
                  0.03794,
                  0.03292,
                  0.05004,
                  0.04309,
                  -0.01553,
                  0.00816,
                  -0.02231,
                  -0.03466,
                  0.04067,
                  -0.04394,
                  0.00437,
                  -0.03629,
                  0.04395,
                  -0.06725,
                  0.03323,
                  0.00804,
                  0.05134,
                  -0.0531,
                  -0.01125,
                  -0.02341,
                  -0.03463,
                  -0.06172,
                  -0.11559,
                  -0.15092,
                  -0.04336,
                  -0.00204,
                  0.05058,
                  0.01378,
                  -0.06853,
                  0.01813,
                  0.02606,
                  -0.08332,
                  -0.04873,
                  -0.04141,
                  -0.12552,
                  -0.09886,
                  -0.07959,
                  -0.04752,
                  0.04287,
                  -0.02144,
                  0.03407,
                  0.04541,
                  0.05217,
                  -0.04668,
                  -0.02551,
                  -0.05385,
                  0.05865,
                  -0.0318,
                  0.12907,
                  0.27952,
                  0.25595,
                  0.20195,
                  0.09965,
                  0.19903,
                  0.02849,
                  -0.03746,
                  0.00842,
                  0.00065,
                  -0.05154,
                  0.00929,
                  0.05143,
                  0.0591,
                  0.02169,
                  -0.05141,
                  0.00146,
                  0.00239,
                  0.07179,
                  0.11848,
                  0.06057,
                  0.02462,
                  -0.00823,
                  -0.08209,
                  -0.00809,
                  0.03297,
                  0.02769,
                  0.03653,
                  -0.06382,
                  -0.28658,
                  -0.20039,
                  -0.15733,
                  -0.07223,
                  -0.03825,
                  -0.05765,
                  -0.01697,
                  -0.00887,
                  -0.02149,
                  -0.02462,
                  0.02616,
                  -0.00735,
                  0.02399,
                  0.00455,
                  0.00317,
                  -0.1549,
                  -0.12785,
                  -0.06445,
                  -0.02278,
                  -0.02883,
                  0.06473,
                  -0.07029,
                  0.04417,
                  -0.07616,
                  -0.01096,
                  0.00952,
                  -0.10194,
                  -0.02067,
                  0.14685,
                  -0.09284,
                  -0.08451,
                  -0.04973,
                  -0.03807,
                  -0.06674,
                  0.01674,
                  0.02288,
                  -0.01098,
                  -0.02851,
                  -0.01321,
                  0.00611,
                  -0.00108,
                  0.02353,
                  0.04372,
                  -0.05067,
                  -0.10724,
                  -0.02555,
                  0.03369,
                  -0.05459,
                  -0.02633,
                  -0.02116,
                  -0.09946,
                  0.01956,
                  -0.01888,
                  -0.05889,
                  0.02848,
                  -0.02981,
                  -0.03663,
                  -0.0035,
                  -0.1081,
                  -0.01434,
                  0.05042,
                  -0.00286,
                  -0.02271,
                  0.04851,
                  -0.01757,
                  -0.07446,
                  0.01272,
                  -0.00573,
                  -0.08497,
                  -0.02194,
                  0.02695,
                  -0.08119,
                  0.00909,
                  0.01963,
                  0.05515,
                  0.02166,
                  0.02518,
                  0.05521,
                  -0.02327,
                  -0.06582,
                  0.03119,
                  0.0163,
                  0.03692,
                  0.01863,
                  0.00969,
                  0.02055,
                  0.00354,
                  -0.00541,
                  0.00815,
                  0.01336,
                  0.05258,
                  -0.05102,
                  -0.05714,
                  -0.02405,
                  -0.05522,
                  -0.03324,
                  0.07047,
                  -0.0422,
                  0.06954,
                  0.04607,
                  0.05494,
                  -0.04405,
                  0.04276,
                  0.06557
                ],
                [
                  1.7730e-02,
                  -3.7970e-02,
                  4.0320e-02,
                  1.8110e-02,
                  1.7000e-02,
                  -2.1910e-02,
                  -4.0500e-03,
                  1.9980e-02,
                  4.0660e-02,
                  2.2170e-02,
                  5.5610e-02,
                  5.9360e-02,
                  -2.4310e-02,
                  -6.0810e-02,
                  -3.3000e-02,
                  -1.3770e-02,
                  -2.5460e-02,
                  -4.5300e-03,
                  -5.5420e-02,
                  -3.8040e-02,
                  -1.0760e-02,
                  -6.4350e-02,
                  -1.7100e-02,
                  1.0630e-02,
                  6.0220e-02,
                  6.4780e-02,
                  5.0910e-02,
                  -1.4800e-03,
                  -2.8690e-02,
                  -2.9990e-02,
                  5.1060e-02,
                  -6.5400e-02,
                  1.5010e-02,
                  -3.6000e-04,
                  2.8100e-02,
                  1.1520e-02,
                  1.0541e-01,
                  4.5250e-02,
                  5.4520e-02,
                  3.4520e-02,
                  8.1300e-02,
                  -7.4610e-02,
                  1.9260e-02,
                  2.4700e-02,
                  5.0700e-03,
                  4.9460e-02,
                  1.1053e-01,
                  9.5900e-03,
                  -1.7918e-01,
                  -2.6625e-01,
                  -5.9700e-02,
                  -6.6640e-02,
                  -1.0115e-01,
                  4.0090e-02,
                  5.2160e-02,
                  -4.2270e-02,
                  -5.2800e-03,
                  7.4590e-02,
                  1.0913e-01,
                  1.6641e-01,
                  1.8542e-01,
                  1.2698e-01,
                  -2.1700e-03,
                  -1.7133e-01,
                  -6.8700e-02,
                  1.9200e-02,
                  3.4660e-02,
                  2.4290e-01,
                  2.0703e-01,
                  4.2640e-02,
                  1.5820e-02,
                  6.4220e-02,
                  5.6060e-02,
                  8.1660e-02,
                  2.0109e-01,
                  2.6447e-01,
                  2.8077e-01,
                  9.2000e-04,
                  -2.7740e-02,
                  -4.4200e-03,
                  4.7250e-02,
                  7.0710e-02,
                  1.4751e-01,
                  2.4000e-04,
                  -6.2880e-02,
                  6.6470e-02,
                  -5.1280e-02,
                  -3.2580e-02,
                  3.6610e-02,
                  1.6454e-01,
                  2.2355e-01,
                  3.7930e-02,
                  -5.3010e-02,
                  6.3480e-02,
                  1.0700e-01,
                  -5.7820e-02,
                  -7.0330e-02,
                  4.9500e-02,
                  1.1900e-02,
                  -4.3090e-02,
                  -1.1484e-01,
                  -2.2713e-01,
                  -2.6597e-01,
                  -1.9284e-01,
                  7.0650e-02,
                  1.1430e-01,
                  2.6730e-02,
                  2.5040e-02,
                  -6.7340e-02,
                  -8.5090e-02,
                  -7.5090e-02,
                  -1.1050e-02,
                  -5.6450e-02,
                  -6.9130e-02,
                  -1.2499e-01,
                  -1.3640e-01,
                  -8.1230e-02,
                  -3.9620e-02,
                  7.1790e-02,
                  -3.2700e-03,
                  -1.9660e-02,
                  -1.1068e-01,
                  1.1870e-02,
                  2.3340e-02,
                  2.9350e-02,
                  1.8840e-02,
                  -6.5620e-02,
                  -1.9120e-02,
                  -7.7000e-03,
                  5.5550e-02,
                  6.9960e-02,
                  4.6890e-02,
                  -6.6650e-02,
                  -1.8889e-01,
                  -3.7180e-02,
                  -7.0950e-02,
                  -6.9480e-02,
                  -4.6000e-02,
                  -9.0700e-02,
                  4.4730e-02,
                  -7.0980e-02,
                  2.4930e-02,
                  -3.2980e-02,
                  -7.5300e-03,
                  1.0528e-01,
                  -2.4290e-02,
                  -5.9090e-02,
                  -8.1830e-02,
                  -7.6470e-02,
                  -7.8570e-02,
                  -4.0330e-02,
                  -5.8450e-02,
                  -4.3050e-02,
                  -8.0800e-03,
                  4.7830e-02,
                  -3.6850e-02,
                  -7.3970e-02,
                  4.5320e-02,
                  -8.8350e-02,
                  6.6620e-02,
                  8.5290e-02,
                  2.0110e-02,
                  -3.6770e-02,
                  -4.4990e-02,
                  -1.3320e-02,
                  -1.7440e-02,
                  -7.1410e-02,
                  -4.0500e-02,
                  6.9000e-03,
                  4.6840e-02,
                  3.2370e-02,
                  -1.1473e-01,
                  1.9280e-02,
                  1.4908e-01,
                  3.5890e-02,
                  -1.0650e-02,
                  8.1370e-02,
                  1.0403e-01,
                  3.8030e-02,
                  -2.8950e-02,
                  -1.6290e-02,
                  3.6790e-02,
                  -5.5290e-02,
                  4.4050e-02,
                  -7.6490e-02,
                  -6.3750e-02,
                  2.6700e-03,
                  -1.7900e-03,
                  -3.6610e-02,
                  -3.8420e-02,
                  -4.0130e-02,
                  -5.1280e-02,
                  -1.3460e-02,
                  -4.0110e-02,
                  3.2690e-02,
                  2.4370e-02
                ],
                [
                  6.6410e-02,
                  -6.7180e-02,
                  1.7300e-03,
                  5.2330e-02,
                  6.6510e-02,
                  4.9810e-02,
                  -2.9510e-02,
                  3.2010e-02,
                  -5.8840e-02,
                  -2.6810e-02,
                  1.1870e-02,
                  -3.6570e-02,
                  -2.5340e-02,
                  8.9000e-04,
                  -6.3600e-03,
                  5.4520e-02,
                  2.3340e-02,
                  -3.0270e-02,
                  2.0640e-02,
                  -6.7940e-02,
                  6.0900e-03,
                  7.2420e-02,
                  8.4620e-02,
                  1.6772e-01,
                  4.8760e-02,
                  -2.3450e-02,
                  5.7310e-02,
                  -5.7760e-02,
                  -1.7500e-03,
                  -2.2430e-02,
                  -3.0680e-02,
                  -1.1382e-01,
                  -2.7230e-02,
                  -2.6850e-02,
                  -7.2820e-02,
                  -8.2990e-02,
                  2.3910e-02,
                  9.3900e-02,
                  3.3550e-02,
                  1.1162e-01,
                  1.8000e-03,
                  2.9220e-02,
                  1.2000e-04,
                  3.8960e-02,
                  -4.8790e-02,
                  -3.4940e-02,
                  -4.8450e-02,
                  3.3690e-02,
                  -8.4900e-03,
                  1.0993e-01,
                  2.1488e-01,
                  2.2731e-01,
                  6.0100e-02,
                  -3.9190e-02,
                  5.6020e-02,
                  -2.0890e-02,
                  -2.7590e-02,
                  -1.7820e-02,
                  -5.9440e-02,
                  -1.3295e-01,
                  -5.5070e-02,
                  -1.1510e-01,
                  -1.0889e-01,
                  -2.5900e-03,
                  -1.7049e-01,
                  -2.1548e-01,
                  -1.5172e-01,
                  -1.4130e-01,
                  6.6200e-03,
                  2.5930e-02,
                  6.3050e-02,
                  -4.8500e-03,
                  -1.6666e-01,
                  -1.2110e-01,
                  -9.2660e-02,
                  -1.3873e-01,
                  -1.4120e-02,
                  -2.2239e-01,
                  -2.9106e-01,
                  -3.6720e-01,
                  -4.5095e-01,
                  -2.7537e-01,
                  4.2200e-03,
                  6.9100e-03,
                  -3.4060e-02,
                  -5.2060e-02,
                  -1.3320e-02,
                  -8.6520e-02,
                  -8.2980e-02,
                  1.0231e-01,
                  8.4090e-02,
                  -5.3640e-02,
                  -2.0960e-02,
                  -3.7190e-02,
                  -1.9341e-01,
                  -2.0022e-01,
                  -3.3870e-02,
                  2.3130e-02,
                  -4.0930e-02,
                  3.5270e-02,
                  -4.1700e-03,
                  5.1360e-02,
                  1.1863e-01,
                  5.4260e-02,
                  -7.3800e-03,
                  -1.0961e-01,
                  -8.0400e-03,
                  1.4501e-01,
                  1.6267e-01,
                  4.4180e-02,
                  -6.2320e-02,
                  -7.1690e-02,
                  -2.9960e-02,
                  2.8700e-03,
                  -3.9150e-02,
                  -5.3730e-02,
                  -5.6900e-03,
                  1.5252e-01,
                  -1.1260e-01,
                  -1.6041e-01,
                  -2.2170e-02,
                  1.5520e-01,
                  1.2739e-01,
                  3.7710e-02,
                  1.6770e-02,
                  1.8900e-02,
                  -7.1600e-03,
                  8.1040e-02,
                  -4.0160e-02,
                  -1.0877e-01,
                  -5.6500e-02,
                  -9.8840e-02,
                  -7.8220e-02,
                  -6.4440e-02,
                  1.3842e-01,
                  6.0170e-02,
                  6.3370e-02,
                  -4.8700e-03,
                  2.0470e-02,
                  3.0030e-02,
                  -4.9890e-02,
                  6.6900e-02,
                  4.2440e-02,
                  -1.4750e-01,
                  -1.4700e-03,
                  -2.5550e-02,
                  9.0940e-02,
                  1.8001e-01,
                  8.0000e-03,
                  5.1280e-02,
                  3.9970e-02,
                  9.0900e-03,
                  5.1420e-02,
                  2.8240e-02,
                  3.9670e-02,
                  -5.4580e-02,
                  1.0863e-01,
                  5.0730e-02,
                  1.8580e-02,
                  1.4110e-01,
                  8.8170e-02,
                  7.1040e-02,
                  -2.3410e-02,
                  -6.0930e-02,
                  -3.3890e-02,
                  2.8650e-02,
                  4.6980e-02,
                  -3.5650e-02,
                  1.3870e-02,
                  1.9240e-02,
                  1.4890e-02,
                  9.2780e-02,
                  1.1944e-01,
                  7.8840e-02,
                  6.7470e-02,
                  -1.6590e-02,
                  2.7500e-03,
                  -4.2800e-03,
                  3.0200e-03,
                  5.5180e-02,
                  -4.8770e-02,
                  6.5620e-02,
                  -6.1500e-03,
                  2.8500e-02,
                  4.8450e-02,
                  -2.3970e-02,
                  -6.3920e-02,
                  2.9410e-02,
                  4.8330e-02,
                  -5.8000e-03,
                  -5.7790e-02,
                  -5.6680e-02,
                  -1.0470e-02,
                  4.6640e-02,
                  2.3510e-02,
                  7.0180e-02
                ],
                [
                  -6.7810e-02,
                  1.7400e-03,
                  -2.9100e-03,
                  5.2350e-02,
                  6.2280e-02,
                  -2.6570e-02,
                  -6.6950e-02,
                  1.5650e-02,
                  2.1530e-02,
                  5.3650e-02,
                  -3.3490e-02,
                  -4.5530e-02,
                  -4.4260e-02,
                  3.2120e-02,
                  -4.4050e-02,
                  -1.2170e-02,
                  5.0040e-02,
                  4.7730e-02,
                  1.2950e-02,
                  5.2090e-02,
                  -5.1720e-02,
                  4.2880e-02,
                  -1.1590e-02,
                  3.4020e-02,
                  -1.9770e-02,
                  -4.2420e-02,
                  -8.8000e-03,
                  2.8340e-02,
                  2.9410e-02,
                  6.0710e-02,
                  1.8480e-02,
                  5.1120e-02,
                  3.3740e-02,
                  3.0520e-02,
                  7.2110e-02,
                  5.6060e-02,
                  -7.7530e-02,
                  -4.0860e-02,
                  1.3810e-02,
                  -2.6100e-03,
                  4.9140e-02,
                  2.0120e-02,
                  -7.5200e-03,
                  3.6100e-03,
                  4.4090e-02,
                  9.6040e-02,
                  5.4000e-02,
                  1.8554e-01,
                  1.0824e-01,
                  -1.0879e-01,
                  6.4950e-02,
                  1.0305e-01,
                  8.1480e-02,
                  -2.5760e-02,
                  -6.2690e-02,
                  -2.0400e-02,
                  1.4150e-02,
                  -3.1960e-02,
                  -2.8010e-02,
                  -3.1900e-02,
                  1.5654e-01,
                  1.8050e-01,
                  -1.8352e-01,
                  -4.9380e-02,
                  2.8867e-01,
                  4.4530e-02,
                  2.7780e-02,
                  -1.7920e-02,
                  -6.2580e-02,
                  4.4710e-02,
                  -1.7650e-02,
                  -1.3680e-02,
                  -6.0940e-02,
                  -2.2120e-02,
                  1.2009e-01,
                  -9.3830e-02,
                  -6.1001e-01,
                  -1.5648e-01,
                  1.4770e-01,
                  -1.5675e-01,
                  7.3000e-03,
                  1.5000e-04,
                  1.2150e-02,
                  -2.8000e-04,
                  -4.9170e-02,
                  -6.8300e-02,
                  -1.3561e-01,
                  -7.8380e-02,
                  -9.1460e-02,
                  -3.6138e-01,
                  -3.3127e-01,
                  -2.6050e-02,
                  1.9660e-02,
                  -2.5287e-01,
                  -3.1790e-02,
                  -3.1430e-02,
                  3.6400e-02,
                  -3.9720e-02,
                  -6.6000e-04,
                  -8.6300e-03,
                  -4.7880e-02,
                  -8.0470e-02,
                  -1.5206e-01,
                  -1.9244e-01,
                  -8.0760e-02,
                  -5.1810e-02,
                  -3.6300e-02,
                  -1.7421e-01,
                  -2.2660e-02,
                  -2.1550e-02,
                  2.2730e-02,
                  -4.4570e-02,
                  5.0920e-02,
                  1.4590e-02,
                  -5.3810e-02,
                  -7.6380e-02,
                  3.5240e-02,
                  1.1570e-02,
                  -7.3330e-02,
                  -2.4670e-02,
                  -2.1556e-01,
                  -2.8694e-01,
                  -7.2440e-02,
                  -1.7350e-02,
                  8.7440e-02,
                  1.2600e-03,
                  6.0730e-02,
                  3.5950e-02,
                  -7.7940e-02,
                  1.8280e-02,
                  1.5792e-01,
                  1.0055e-01,
                  7.9100e-02,
                  -2.0177e-01,
                  -2.4181e-01,
                  7.6500e-03,
                  1.0751e-01,
                  8.4190e-02,
                  1.4000e-02,
                  2.1000e-03,
                  2.4520e-02,
                  -4.3200e-02,
                  5.8210e-02,
                  8.7800e-03,
                  5.3830e-02,
                  2.3944e-01,
                  1.7176e-01,
                  7.6670e-02,
                  -9.2500e-03,
                  6.6880e-02,
                  4.2470e-02,
                  3.4960e-02,
                  0.0000e+00,
                  6.3930e-02,
                  -5.9160e-02,
                  2.5140e-02,
                  -2.9330e-02,
                  1.2300e-03,
                  5.5360e-02,
                  1.0910e-02,
                  -2.0210e-02,
                  2.7340e-02,
                  -1.3518e-01,
                  -6.2840e-02,
                  2.3590e-02,
                  2.7810e-02,
                  2.2520e-02,
                  3.2360e-02,
                  -4.3010e-02,
                  -6.5740e-02,
                  3.8380e-02,
                  4.1050e-02,
                  -6.9400e-03,
                  -4.3520e-02,
                  6.0200e-03,
                  2.1880e-02,
                  -1.7495e-01,
                  -1.9452e-01,
                  -1.0362e-01,
                  -8.5350e-02,
                  6.0980e-02,
                  -6.6900e-03,
                  3.1430e-02,
                  7.0930e-02,
                  3.9900e-02,
                  -3.6880e-02,
                  5.1470e-02,
                  7.1580e-02,
                  -1.4360e-02,
                  1.6200e-03,
                  -4.9400e-02,
                  4.6880e-02,
                  -5.5780e-02,
                  4.5160e-02,
                  1.8850e-02,
                  -5.4850e-02
                ],
                [
                  -0.01985,
                  0.03973,
                  -0.01376,
                  0.0553,
                  0.05223,
                  -0.01666,
                  0.04891,
                  0.01978,
                  -0.04094,
                  -0.06043,
                  0.05732,
                  -0.03475,
                  0.04467,
                  0.0587,
                  0.05636,
                  -0.04309,
                  0.02326,
                  0.02088,
                  0.04965,
                  0.06211,
                  0.06133,
                  0.02634,
                  -0.08677,
                  -0.0039,
                  -0.02106,
                  0.03998,
                  0.03976,
                  -0.00203,
                  -0.03346,
                  -0.04838,
                  -0.00869,
                  0.01611,
                  0.11557,
                  0.0677,
                  0.04655,
                  -0.02202,
                  -0.05921,
                  -0.01084,
                  -0.10878,
                  -0.08955,
                  -0.01194,
                  -0.04688,
                  0.00807,
                  0.0288,
                  0.06406,
                  0.08711,
                  0.13816,
                  0.24799,
                  0.03481,
                  -0.01907,
                  -0.06741,
                  0.01966,
                  0.04418,
                  -0.00368,
                  0.02025,
                  0.06658,
                  -0.01496,
                  0.01735,
                  0.06338,
                  0.0212,
                  0.01218,
                  0.05923,
                  0.23789,
                  0.2865,
                  0.26282,
                  0.13857,
                  0.05648,
                  0.16521,
                  0.00395,
                  -0.04453,
                  -0.01274,
                  -0.05456,
                  -0.11256,
                  -0.1622,
                  -0.1744,
                  -0.15097,
                  -0.03357,
                  0.02893,
                  0.08044,
                  0.04859,
                  0.03644,
                  -0.05423,
                  0.00748,
                  -0.03498,
                  -0.05148,
                  -0.08173,
                  -0.14721,
                  -0.11873,
                  -0.05164,
                  -0.05929,
                  -0.17027,
                  -0.32753,
                  -0.06257,
                  -0.03616,
                  -0.08644,
                  -0.14906,
                  0.01573,
                  -0.04148,
                  -0.04604,
                  -0.06075,
                  -0.03966,
                  -0.08744,
                  0.00666,
                  -0.00499,
                  -0.08454,
                  -0.10656,
                  -0.12705,
                  -0.00976,
                  -0.0303,
                  -0.00571,
                  0.03657,
                  0.04257,
                  -0.02861,
                  0.06785,
                  -0.04324,
                  -0.03687,
                  -0.03183,
                  -0.00936,
                  -0.03019,
                  -0.12523,
                  -0.13531,
                  -0.07354,
                  0.02386,
                  0.08767,
                  -0.00339,
                  0.02964,
                  0.04379,
                  -0.01795,
                  0.00411,
                  -0.03456,
                  0.00585,
                  0.00121,
                  -0.00584,
                  -0.08618,
                  0.06046,
                  -0.03212,
                  0.03667,
                  0.02117,
                  0.01382,
                  -0.04093,
                  0.03037,
                  -0.01476,
                  -0.00084,
                  -0.02461,
                  0.04631,
                  0.11566,
                  0.20718,
                  0.08481,
                  0.06639,
                  0.0365,
                  0.01577,
                  0.04094,
                  0.05079,
                  -0.00951,
                  -0.05925,
                  0.05425,
                  0.08506,
                  0.14406,
                  0.06878,
                  0.13502,
                  0.04513,
                  0.03813,
                  0.0383,
                  -0.03114,
                  -0.09849,
                  0.00515,
                  0.00128,
                  -0.02462,
                  -0.00206,
                  0.02109,
                  0.00067,
                  -0.00213,
                  0.07013,
                  0.02215,
                  0.10507,
                  0.07802,
                  0.04859,
                  0.0693,
                  -0.07942,
                  0.03784,
                  0.02145,
                  -0.02057,
                  0.07133,
                  -0.06542,
                  0.01219,
                  -0.03556,
                  0.03784,
                  0.00923,
                  -0.05543,
                  -0.01973,
                  0.01719,
                  -0.03784,
                  -0.01598,
                  -0.01468,
                  0.00151,
                  -0.03349
                ],
                [
                  -5.7270e-02,
                  -2.9090e-02,
                  1.5770e-02,
                  5.7490e-02,
                  -2.7160e-02,
                  -7.0580e-02,
                  -6.6350e-02,
                  6.6320e-02,
                  -6.9690e-02,
                  -2.2470e-02,
                  -6.2100e-03,
                  3.7870e-02,
                  6.2750e-02,
                  1.1390e-02,
                  6.1070e-02,
                  2.9010e-02,
                  -3.2190e-02,
                  3.7070e-02,
                  3.3230e-02,
                  -5.2370e-02,
                  -1.0379e-01,
                  9.5600e-02,
                  -7.1700e-03,
                  5.9500e-02,
                  1.8570e-02,
                  -6.4700e-02,
                  3.9090e-02,
                  1.2760e-02,
                  -9.8000e-04,
                  7.1000e-02,
                  -2.9550e-02,
                  3.2440e-02,
                  1.6980e-02,
                  -3.9230e-02,
                  9.6700e-02,
                  1.1967e-01,
                  5.6900e-02,
                  -1.3270e-01,
                  -7.1100e-02,
                  -3.5170e-02,
                  1.7500e-02,
                  -6.8260e-02,
                  2.4060e-02,
                  -2.2120e-02,
                  -5.6560e-02,
                  -5.5200e-02,
                  -7.6910e-02,
                  5.7650e-02,
                  6.5750e-02,
                  5.9840e-02,
                  6.1420e-02,
                  -6.0370e-02,
                  -4.1060e-02,
                  2.8700e-02,
                  -6.8000e-03,
                  3.1960e-02,
                  -5.0530e-02,
                  6.3900e-02,
                  -5.7830e-02,
                  -1.2211e-01,
                  -1.3370e-02,
                  -1.3980e-02,
                  3.3330e-02,
                  9.0630e-02,
                  -2.0300e-03,
                  -4.8650e-02,
                  -4.1380e-02,
                  7.8530e-02,
                  2.6757e-01,
                  1.8550e-02,
                  2.6150e-02,
                  4.0780e-02,
                  4.0790e-02,
                  -9.6700e-02,
                  -3.5670e-02,
                  3.6460e-02,
                  -5.2740e-02,
                  3.3250e-02,
                  -1.6082e-01,
                  7.1080e-02,
                  4.6800e-02,
                  1.3270e-01,
                  1.0563e-01,
                  3.0160e-02,
                  -2.1670e-02,
                  2.1170e-02,
                  -7.1900e-02,
                  -1.4577e-01,
                  -1.7920e-02,
                  -1.1950e-02,
                  1.4414e-01,
                  1.5793e-01,
                  1.3590e-02,
                  -1.2647e-01,
                  -6.2000e-02,
                  -2.1052e-01,
                  -5.0980e-02,
                  -4.5570e-02,
                  -5.7500e-03,
                  -4.5600e-02,
                  -6.8080e-02,
                  -3.0947e-01,
                  -1.1568e-01,
                  1.6759e-01,
                  3.3395e-01,
                  5.7000e-04,
                  3.0270e-02,
                  -1.7041e-01,
                  -1.9139e-01,
                  -1.8861e-01,
                  -9.9610e-02,
                  -6.6630e-02,
                  5.8010e-02,
                  1.5710e-02,
                  1.4000e-04,
                  -3.4418e-01,
                  -6.1802e-01,
                  -2.6996e-01,
                  -5.1900e-03,
                  5.5330e-02,
                  1.2430e-02,
                  1.6240e-02,
                  -1.6614e-01,
                  -8.1660e-02,
                  -8.3210e-02,
                  3.5890e-02,
                  4.9290e-02,
                  6.1500e-02,
                  1.1235e-01,
                  2.0751e-01,
                  -8.3240e-02,
                  -2.8092e-01,
                  -2.7956e-01,
                  -9.4000e-04,
                  9.6370e-02,
                  -2.9150e-02,
                  -1.8615e-01,
                  -1.7583e-01,
                  -1.8440e-02,
                  -1.5430e-02,
                  -5.7000e-02,
                  1.5870e-02,
                  3.6020e-02,
                  2.5758e-01,
                  2.1435e-01,
                  9.6810e-02,
                  -1.3994e-01,
                  -1.6415e-01,
                  -2.4000e-02,
                  2.8720e-02,
                  -2.5000e-01,
                  -9.3090e-02,
                  -7.5320e-02,
                  -3.5900e-03,
                  -2.6880e-02,
                  -1.2000e-03,
                  5.6570e-02,
                  -3.2400e-03,
                  7.7070e-02,
                  3.6170e-02,
                  -3.4140e-02,
                  -9.8670e-02,
                  -8.9250e-02,
                  -1.6912e-01,
                  -1.1429e-01,
                  -5.1610e-02,
                  1.9580e-02,
                  2.2800e-03,
                  -7.0880e-02,
                  6.8910e-02,
                  7.9790e-02,
                  -6.5180e-02,
                  -2.6240e-02,
                  -9.3820e-02,
                  1.3430e-02,
                  -5.7630e-02,
                  2.1180e-02,
                  -6.0150e-02,
                  5.0360e-02,
                  5.3660e-02,
                  6.0370e-02,
                  4.3300e-03,
                  5.6010e-02,
                  5.3920e-02,
                  3.4710e-02,
                  -2.9000e-03,
                  -2.1230e-02,
                  1.2379e-01,
                  2.7500e-02,
                  1.5015e-01,
                  5.4780e-02,
                  7.8810e-02,
                  -1.6830e-02,
                  -7.7000e-04,
                  -2.1500e-03,
                  2.5360e-02
                ],
                [
                  0.01817,
                  0.01895,
                  0.0395,
                  0.00706,
                  -0.02852,
                  -0.00421,
                  -0.01565,
                  -0.037,
                  -0.03591,
                  -0.04361,
                  0.05848,
                  0.05253,
                  0.0354,
                  0.03375,
                  -0.0474,
                  0.03969,
                  -0.05959,
                  0.04255,
                  -0.06225,
                  0.04991,
                  -0.00926,
                  -0.03131,
                  0.01703,
                  0.02332,
                  0.09536,
                  0.01857,
                  0.00497,
                  -0.01068,
                  -0.06468,
                  0.01207,
                  0.02472,
                  -0.05827,
                  -0.04353,
                  -0.0709,
                  -0.13571,
                  -0.11774,
                  0.03296,
                  0.10894,
                  0.08509,
                  0.09967,
                  -0.02058,
                  0.06498,
                  0.03749,
                  0.04583,
                  -0.12285,
                  -0.14739,
                  -0.10142,
                  0.06667,
                  0.0537,
                  0.06512,
                  0.10583,
                  0.144,
                  0.09773,
                  0.20534,
                  0.06035,
                  0.06809,
                  -0.05224,
                  0.0509,
                  -0.07567,
                  -0.11411,
                  -0.05278,
                  0.05098,
                  0.04698,
                  0.02914,
                  -0.01017,
                  0.0164,
                  0.00899,
                  0.0876,
                  0.13833,
                  0.04394,
                  0.00181,
                  -0.06353,
                  -0.01932,
                  -0.01863,
                  -0.05015,
                  -0.08725,
                  0.11121,
                  -0.08737,
                  -0.20036,
                  -0.2679,
                  -0.23255,
                  -0.01319,
                  -0.0176,
                  -0.06659,
                  -0.00053,
                  -0.02109,
                  -0.08327,
                  0.05203,
                  -0.01985,
                  0.07328,
                  0.19647,
                  -0.0737,
                  -0.31822,
                  -0.15576,
                  -0.23111,
                  -0.01231,
                  -0.06352,
                  0.06351,
                  0.03168,
                  0.00675,
                  0.01831,
                  0.05868,
                  -0.00491,
                  0.13169,
                  -0.10781,
                  -0.13861,
                  0.08319,
                  -0.03069,
                  -0.10947,
                  0.02191,
                  0.07475,
                  -0.00454,
                  0.03866,
                  -0.00286,
                  0.07555,
                  -0.03656,
                  -0.05136,
                  -0.07369,
                  -0.23545,
                  -0.10024,
                  0.03819,
                  0.0205,
                  0.01058,
                  0.00877,
                  0.04305,
                  -0.02157,
                  -0.05852,
                  -0.02399,
                  0.08985,
                  0.05741,
                  0.13986,
                  -0.16599,
                  -0.15045,
                  0.04258,
                  0.04289,
                  -0.0389,
                  -0.01101,
                  0.02163,
                  -0.07274,
                  0.02495,
                  -0.02744,
                  0.00668,
                  0.02487,
                  0.12526,
                  0.14446,
                  0.20781,
                  0.03687,
                  -0.11053,
                  -0.17935,
                  -0.1748,
                  -0.10602,
                  -0.08083,
                  -0.02186,
                  0.04915,
                  0.06519,
                  0.01427,
                  0.08262,
                  0.13257,
                  0.10666,
                  0.15897,
                  0.02476,
                  0.04835,
                  0.00172,
                  -0.05507,
                  -0.05029,
                  0.0059,
                  0.05345,
                  0.0062,
                  0.06278,
                  0.04713,
                  -0.00793,
                  0.0216,
                  0.01931,
                  0.02482,
                  0.01108,
                  0.05838,
                  -0.01189,
                  0.00147,
                  0.03106,
                  -0.01884,
                  0.023,
                  0.00771,
                  0.06786,
                  -0.04916,
                  -0.01051,
                  -0.06025,
                  -0.05439,
                  -0.05453,
                  -0.0319,
                  -0.00315,
                  -0.06528,
                  -0.00949,
                  0.03222,
                  -0.03548,
                  0.04048,
                  0.05629
                ],
                [
                  -0.0554,
                  -0.05804,
                  -0.06797,
                  0.062,
                  0.01305,
                  -0.04867,
                  0.0008,
                  0.02604,
                  -0.01361,
                  -0.07006,
                  0.06284,
                  -0.05954,
                  0.00427,
                  -0.02022,
                  -0.04258,
                  0.0122,
                  -0.00677,
                  -0.04725,
                  -0.00892,
                  0.01849,
                  0.05504,
                  0.00561,
                  0.00513,
                  -0.08349,
                  -0.00644,
                  0.04774,
                  -0.02638,
                  0.01797,
                  0.04302,
                  -0.03203,
                  -0.05933,
                  -0.02707,
                  0.03588,
                  -0.04516,
                  0.03893,
                  0.0353,
                  -0.14353,
                  -0.13081,
                  -0.07663,
                  -0.03098,
                  -0.00399,
                  -0.06751,
                  0.02274,
                  -0.01767,
                  0.05144,
                  0.05269,
                  0.04308,
                  0.11697,
                  0.09575,
                  0.16312,
                  0.17355,
                  -0.06156,
                  -0.14576,
                  -0.13356,
                  0.00747,
                  -0.02733,
                  0.01095,
                  -0.01561,
                  0.05056,
                  -0.04129,
                  0.16554,
                  -0.00277,
                  -0.08437,
                  0.16106,
                  0.21629,
                  0.00953,
                  -0.14018,
                  -0.10556,
                  -0.07742,
                  0.05981,
                  0.04427,
                  0.03321,
                  0.004,
                  -0.00342,
                  -0.15053,
                  -0.26684,
                  -0.23862,
                  0.03416,
                  0.22777,
                  -0.00507,
                  -0.1144,
                  -0.06215,
                  -0.06581,
                  -0.0339,
                  0.01841,
                  -0.01493,
                  -0.13721,
                  -0.0421,
                  -0.08851,
                  0.00345,
                  -0.0798,
                  0.06909,
                  0.11001,
                  -0.08119,
                  -0.10817,
                  -0.08143,
                  -0.0513,
                  0.06805,
                  -0.01554,
                  0.06624,
                  -0.07217,
                  -0.07097,
                  0.01136,
                  0.15426,
                  -0.02712,
                  -0.02373,
                  0.01612,
                  -0.03786,
                  0.00257,
                  -0.0114,
                  0.02901,
                  0.03528,
                  -0.00213,
                  -0.06416,
                  -0.06152,
                  -0.04877,
                  -0.00534,
                  -0.00439,
                  -0.11654,
                  -0.00283,
                  -0.04351,
                  -0.01242,
                  0.0135,
                  0.04871,
                  0.08279,
                  -0.01825,
                  -0.06651,
                  0.04015,
                  -0.10634,
                  -0.08858,
                  -0.09786,
                  -0.09505,
                  0.06822,
                  -0.00627,
                  -0.02788,
                  -0.02346,
                  -0.04332,
                  -0.02601,
                  -0.00425,
                  0.03183,
                  0.06082,
                  -0.05468,
                  -0.03551,
                  -0.09315,
                  0.04243,
                  0.01143,
                  0.00626,
                  -0.00766,
                  -0.1048,
                  -0.07426,
                  -0.00503,
                  -0.09626,
                  -0.00654,
                  -0.00764,
                  0.06555,
                  0.06536,
                  0.00591,
                  0.08971,
                  -0.05863,
                  0.07042,
                  0.07749,
                  0.01439,
                  -0.10144,
                  -0.15847,
                  -0.07856,
                  -0.02842,
                  -0.06264,
                  0.02858,
                  0.04641,
                  0.04592,
                  0.06857,
                  0.09008,
                  0.00768,
                  -0.01085,
                  0.03224,
                  -0.05206,
                  -0.07899,
                  -0.14168,
                  -0.06842,
                  -0.08833,
                  -0.02454,
                  0.07041,
                  0.02707,
                  -0.03739,
                  0.02041,
                  -0.04075,
                  0.06641,
                  0.03289,
                  -0.01205,
                  -0.01368,
                  0.04483,
                  0.06501,
                  0.05245,
                  0.03241,
                  0.01866,
                  0.07064
                ],
                [
                  -0.03108,
                  0.04451,
                  0.04485,
                  -0.05633,
                  -0.01662,
                  0.0144,
                  -0.04074,
                  0.06617,
                  0.06722,
                  -0.00782,
                  0.03596,
                  -0.03323,
                  -0.01892,
                  0.00317,
                  -0.05828,
                  -0.04031,
                  -0.02398,
                  0.00286,
                  -0.02964,
                  -0.03987,
                  -0.07605,
                  0.01176,
                  0.0214,
                  0.01634,
                  -0.0755,
                  -0.04477,
                  0.00833,
                  0.04393,
                  -0.02874,
                  0.01082,
                  -0.07125,
                  -0.00271,
                  -0.01655,
                  0.09018,
                  0.01489,
                  -0.08787,
                  -0.03244,
                  0.10446,
                  -0.07283,
                  0.01652,
                  0.06621,
                  0.06656,
                  -0.04728,
                  0.01951,
                  0.04271,
                  -0.12899,
                  -0.03491,
                  0.00981,
                  0.07377,
                  0.26957,
                  0.19409,
                  0.16372,
                  0.12484,
                  -0.05156,
                  -0.06524,
                  -0.00301,
                  0.05009,
                  -0.04975,
                  -0.08339,
                  -0.12667,
                  0.08048,
                  0.01639,
                  0.08479,
                  0.05584,
                  -0.02785,
                  -0.06753,
                  0.01071,
                  -0.10513,
                  0.04711,
                  -0.05568,
                  -0.07099,
                  0.0082,
                  -0.05674,
                  -0.05124,
                  0.09911,
                  0.04229,
                  0.05769,
                  -0.08805,
                  -0.08917,
                  0.05781,
                  0.05211,
                  -0.00967,
                  0.10444,
                  -0.03727,
                  -0.02536,
                  0.03643,
                  -0.07195,
                  0.01653,
                  -0.02766,
                  -0.12686,
                  0.06584,
                  0.16351,
                  0.15468,
                  -0.06369,
                  -0.05151,
                  0.01488,
                  -0.02249,
                  -0.00392,
                  -0.05427,
                  -0.06716,
                  -0.04066,
                  -0.08515,
                  -0.03184,
                  -0.00753,
                  0.07377,
                  -0.03702,
                  -0.11074,
                  -0.17214,
                  -0.103,
                  0.0323,
                  -0.00716,
                  0.01187,
                  -0.05037,
                  0.04726,
                  0.01738,
                  -0.11956,
                  -0.0697,
                  0.24528,
                  0.12783,
                  -0.0804,
                  -0.19658,
                  -0.10121,
                  -0.04582,
                  0.00089,
                  -0.07296,
                  0.04176,
                  -0.01106,
                  0.05691,
                  -0.0342,
                  -0.11665,
                  -0.17106,
                  -0.19319,
                  -0.33066,
                  -0.12688,
                  0.02325,
                  0.18172,
                  0.06543,
                  -0.09559,
                  -0.02407,
                  0.00372,
                  -0.02027,
                  -0.00935,
                  0.01744,
                  0.0274,
                  -0.09254,
                  -0.32978,
                  -0.19044,
                  -0.08344,
                  0.01754,
                  0.14092,
                  0.01245,
                  -0.11311,
                  0.01821,
                  0.00987,
                  0.03686,
                  0.05401,
                  -0.02906,
                  0.05142,
                  0.06219,
                  0.23659,
                  0.13076,
                  0.01687,
                  -0.08689,
                  -0.10519,
                  -0.05181,
                  -0.02858,
                  0.05381,
                  0.00252,
                  0.03568,
                  0.02911,
                  -0.0277,
                  0.06567,
                  0.20387,
                  0.26486,
                  0.19498,
                  0.15525,
                  0.21843,
                  0.05688,
                  0.09918,
                  0.03893,
                  -0.05242,
                  0.06883,
                  0.05984,
                  0.06835,
                  0.07239,
                  -0.01157,
                  0.00848,
                  0.10064,
                  0.10875,
                  0.07084,
                  0.09543,
                  0.0164,
                  0.02711,
                  -0.00736,
                  -0.03316,
                  -0.00708
                ],
                [
                  -0.02961,
                  -0.04234,
                  -0.05146,
                  0.03735,
                  0.03723,
                  -0.01295,
                  0.03111,
                  0.05054,
                  0.00574,
                  0.05371,
                  -0.03183,
                  -0.0588,
                  -0.0073,
                  0.00239,
                  -0.01469,
                  -0.03142,
                  0.03662,
                  -0.03007,
                  0.03282,
                  -0.0469,
                  -0.05229,
                  0.03331,
                  0.00238,
                  -0.04161,
                  0.00286,
                  -0.07551,
                  -0.03119,
                  0.03908,
                  -0.03164,
                  0.03091,
                  -0.05418,
                  0.0302,
                  -0.03129,
                  -0.06467,
                  -0.04084,
                  0.06705,
                  0.12606,
                  0.09359,
                  -0.01247,
                  0.01926,
                  0.04177,
                  0.05606,
                  -0.03647,
                  -0.00152,
                  0.03829,
                  -0.0438,
                  -0.07207,
                  -0.01555,
                  -0.07272,
                  -0.10539,
                  -0.04188,
                  0.24917,
                  0.14906,
                  0.02074,
                  -0.04563,
                  -0.03481,
                  -0.05009,
                  0.03482,
                  0.00223,
                  -0.03925,
                  0.03971,
                  0.02389,
                  -0.14489,
                  -0.18665,
                  -0.24796,
                  0.25259,
                  0.26765,
                  0.16237,
                  -0.11667,
                  -0.07831,
                  -0.03068,
                  -0.04516,
                  -0.00278,
                  0.04823,
                  0.02347,
                  -0.04437,
                  -0.00834,
                  -0.16428,
                  -0.23422,
                  0.10392,
                  0.25569,
                  0.16155,
                  -0.0807,
                  -0.04372,
                  0.0395,
                  -0.02669,
                  0.05626,
                  0.02369,
                  0.05601,
                  0.02909,
                  -0.0184,
                  -0.18042,
                  -0.20154,
                  0.09225,
                  0.17665,
                  0.10307,
                  0.00056,
                  0.03202,
                  -0.04951,
                  -0.05267,
                  0.02966,
                  0.08377,
                  0.00496,
                  -0.0649,
                  0.00988,
                  -0.02211,
                  0.00383,
                  0.1522,
                  0.04751,
                  0.00877,
                  -0.09872,
                  0.03729,
                  0.06866,
                  0.03522,
                  0.08906,
                  0.03499,
                  0.03029,
                  -0.0743,
                  -0.03485,
                  -0.02355,
                  0.02457,
                  0.01709,
                  -0.00476,
                  -0.0926,
                  -0.10309,
                  -0.06989,
                  0.05849,
                  -0.06483,
                  0.00035,
                  0.06769,
                  0.04233,
                  -0.07826,
                  0.03801,
                  -0.03048,
                  0.00138,
                  0.03774,
                  -0.09067,
                  0.00853,
                  -0.04708,
                  0.02507,
                  -0.00085,
                  0.06343,
                  -0.04269,
                  0.07264,
                  -0.00509,
                  0.06066,
                  0.00632,
                  -0.05906,
                  0.02696,
                  0.06968,
                  -0.03797,
                  0.01976,
                  -0.0231,
                  0.00994,
                  0.01787,
                  -0.04249,
                  0.01147,
                  0.07691,
                  0.07223,
                  0.10866,
                  -0.10161,
                  -0.04623,
                  -0.08287,
                  -0.02482,
                  0.05161,
                  0.02138,
                  -0.04738,
                  -0.00576,
                  -0.0139,
                  -0.02349,
                  -0.01186,
                  0.02822,
                  0.13663,
                  0.0347,
                  -0.00515,
                  -0.0237,
                  -0.09277,
                  -0.03578,
                  0.08711,
                  0.05539,
                  -0.04423,
                  0.04962,
                  -0.03457,
                  -0.04465,
                  -0.04495,
                  -0.04827,
                  0.06918,
                  -0.01173,
                  -0.04542,
                  -0.02365,
                  0.03116,
                  -0.0478,
                  0.02611,
                  0.01648,
                  0.02331,
                  0.0136
                ],
                [
                  -0.00768,
                  0.03893,
                  0.04434,
                  0.03602,
                  -0.04544,
                  -0.04831,
                  -0.06864,
                  -0.06579,
                  0.00299,
                  -0.04002,
                  0.00557,
                  -0.04553,
                  0.04612,
                  -0.05854,
                  -0.02125,
                  0.05019,
                  0.02327,
                  0.06279,
                  0.02515,
                  0.07105,
                  -0.01145,
                  -0.01377,
                  -0.10973,
                  0.01786,
                  -0.0553,
                  -0.04084,
                  0.02936,
                  -0.0388,
                  0.05959,
                  -0.04567,
                  -0.00207,
                  0.01702,
                  0.08528,
                  0.05647,
                  0.02622,
                  -0.05291,
                  -0.11108,
                  -0.06925,
                  -0.00632,
                  -0.07851,
                  -0.00258,
                  -0.04926,
                  0.06189,
                  0.04051,
                  -0.06195,
                  -0.05492,
                  -0.08965,
                  -0.06307,
                  -0.07044,
                  0.06978,
                  0.03492,
                  -0.08909,
                  -0.0611,
                  -0.08243,
                  -0.02676,
                  0.01608,
                  -0.06095,
                  0.02056,
                  -0.07712,
                  -0.09545,
                  -0.1087,
                  -0.0115,
                  0.04709,
                  0.0781,
                  -0.04798,
                  -0.07178,
                  -0.04527,
                  -0.0212,
                  0.02361,
                  0.01677,
                  0.04947,
                  -0.07128,
                  0.03474,
                  0.06608,
                  0.1832,
                  0.18323,
                  -0.02265,
                  -0.13749,
                  -0.04298,
                  0.06644,
                  -0.08819,
                  -0.05435,
                  -0.00183,
                  0.00147,
                  -0.05907,
                  -0.04084,
                  0.05191,
                  0.06211,
                  0.04662,
                  -0.16561,
                  -0.1212,
                  0.0314,
                  0.18935,
                  0.17877,
                  0.07168,
                  0.02447,
                  -0.05688,
                  0.04169,
                  0.01239,
                  0.02999,
                  0.00634,
                  -0.07942,
                  -0.16818,
                  -0.11916,
                  0.09041,
                  0.0566,
                  0.18204,
                  -0.01339,
                  -0.15492,
                  -0.10125,
                  -0.07672,
                  -0.03687,
                  0.03379,
                  0.03256,
                  -0.05832,
                  -0.07888,
                  0.09337,
                  0.02318,
                  0.17243,
                  0.01452,
                  -0.07057,
                  -0.17745,
                  -0.13194,
                  -0.10933,
                  -0.01513,
                  -0.05748,
                  0.04085,
                  0.07009,
                  -0.04311,
                  0.03782,
                  0.03519,
                  0.02402,
                  0.05884,
                  -0.03298,
                  -0.08312,
                  -0.05908,
                  -0.03872,
                  -0.04964,
                  0.02557,
                  0.00579,
                  0.03298,
                  0.04193,
                  -0.04337,
                  0.08222,
                  0.03539,
                  -0.02446,
                  -0.02431,
                  0.02159,
                  0.0394,
                  0.0019,
                  -0.03472,
                  0.07485,
                  -0.04142,
                  -0.04033,
                  0.02049,
                  0.06262,
                  -0.03498,
                  0.0281,
                  0.07679,
                  0.05776,
                  -0.00906,
                  -0.03049,
                  0.03869,
                  0.15017,
                  0.16713,
                  0.12942,
                  0.07726,
                  0.00514,
                  0.0403,
                  0.04056,
                  -0.07146,
                  -0.06029,
                  -0.04523,
                  -0.01461,
                  -0.05276,
                  0.05446,
                  0.02749,
                  0.06389,
                  0.08648,
                  0.03053,
                  0.05521,
                  0.01443,
                  -0.03194,
                  0.04897,
                  0.0362,
                  -0.04948,
                  0.02021,
                  0.06729,
                  0.07489,
                  0.00864,
                  -0.00099,
                  -0.01275,
                  -0.03543,
                  -0.05567,
                  0.04159,
                  -0.03527
                ],
                [
                  -0.01823,
                  0.04545,
                  -0.04821,
                  -0.0087,
                  0.00331,
                  -0.03161,
                  -0.03723,
                  0.02059,
                  -0.01294,
                  0.07399,
                  0.03798,
                  0.03931,
                  -0.03392,
                  -0.05783,
                  -0.00519,
                  -0.03062,
                  -0.02074,
                  0.05515,
                  0.01271,
                  0.00925,
                  0.06967,
                  0.14234,
                  0.13974,
                  0.12332,
                  -0.00181,
                  -0.0265,
                  0.0619,
                  0.01625,
                  -0.007,
                  -0.06744,
                  0.01802,
                  -0.05792,
                  -0.06245,
                  -0.0221,
                  0.09227,
                  0.11737,
                  0.22305,
                  0.14303,
                  0.07295,
                  0.0815,
                  0.02806,
                  0.05353,
                  0.0156,
                  0.02939,
                  -0.07111,
                  -0.06608,
                  0.03767,
                  0.08459,
                  0.13622,
                  0.16022,
                  0.02651,
                  -0.01894,
                  -0.09401,
                  -0.1515,
                  -0.01991,
                  0.07258,
                  -0.01685,
                  0.01361,
                  -0.11629,
                  0.00373,
                  0.0236,
                  0.05175,
                  0.00597,
                  -0.31723,
                  -0.50927,
                  -0.54175,
                  -0.45274,
                  -0.34587,
                  -0.01536,
                  -0.0255,
                  -0.01566,
                  0.05338,
                  -0.10611,
                  0.12982,
                  0.06469,
                  -0.01164,
                  -0.12506,
                  -0.04388,
                  0.17577,
                  -0.06177,
                  -0.15133,
                  -0.13588,
                  -0.07489,
                  -0.05439,
                  0.03481,
                  -0.01659,
                  0.08427,
                  0.20412,
                  0.00864,
                  0.07756,
                  -0.20402,
                  0.0559,
                  0.08933,
                  0.19929,
                  0.12484,
                  0.08051,
                  0.02961,
                  -0.04777,
                  0.03765,
                  -0.07112,
                  -0.01697,
                  0.05309,
                  0.03352,
                  0.04502,
                  -0.19919,
                  -0.10538,
                  -0.03379,
                  -0.03735,
                  0.10654,
                  0.01796,
                  -0.01448,
                  -0.06874,
                  -0.06995,
                  -0.07162,
                  -0.00056,
                  -0.0099,
                  -0.05666,
                  0.00365,
                  -0.07725,
                  -0.06368,
                  0.01016,
                  0.00586,
                  0.01503,
                  -0.06376,
                  -0.00816,
                  0.01278,
                  0.06899,
                  0.01253,
                  -0.02991,
                  0.00557,
                  0.05435,
